digraph Tree {
node [shape=box, style="filled, rounded", color="black", fontname=helvetica] ;
edge [fontname=helvetica] ;
0 [label=<Sex_code &le; 0.5<br/>gini = 0.473<br/>samples = 891<br/>value = [549, 342]<br/>class = Died>, fillcolor="#e5813960"] ;
1 [label=<Title_code &le; 5.5<br/>gini = 0.306<br/>samples = 577<br/>value = [468, 109]<br/>class = Died>, fillcolor="#e58139c4"] ;
0 -> 1 [labeldistance=2.5, labelangle=45, headlabel="True"] ;
2 [label=<Fare &le; 26.269<br/>gini = 0.264<br/>samples = 517<br/>value = [436, 81]<br/>class = Died>, fillcolor="#e58139d0"] ;
1 -> 2 ;
3 [label=<Age &le; 1.5<br/>gini = 0.18<br/>samples = 390<br/>value = [351, 39]<br/>class = Died>, fillcolor="#e58139e3"] ;
2 -> 3 ;
4 [label=<Embarked_code &le; 0.5<br/>gini = 0.213<br/>samples = 256<br/>value = [225, 31]<br/>class = Died>, fillcolor="#e58139dc"] ;
3 -> 4 ;
5 [label=<Fare &le; 15.396<br/>gini = 0.35<br/>samples = 31<br/>value = [24, 7]<br/>class = Died>, fillcolor="#e58139b5"] ;
4 -> 5 ;
6 [label=<Fare &le; 14.158<br/>gini = 0.311<br/>samples = 26<br/>value = [21, 5]<br/>class = Died>, fillcolor="#e58139c2"] ;
5 -> 6 ;
7 [label=<Pclass &le; 2.5<br/>gini = 0.363<br/>samples = 21<br/>value = [16, 5]<br/>class = Died>, fillcolor="#e58139af"] ;
6 -> 7 ;
8 [label=<gini = 0.0<br/>samples = 1<br/>value = [0, 1]<br/>class = Survived>, fillcolor="#399de5ff"] ;
7 -> 8 ;
9 [label=<Age &le; 0.5<br/>gini = 0.32<br/>samples = 20<br/>value = [16, 4]<br/>class = Died>, fillcolor="#e58139bf"] ;
7 -> 9 ;
10 [label=<Family_size &le; 0.5<br/>gini = 0.5<br/>samples = 2<br/>value = [1, 1]<br/>class = Died>, fillcolor="#e5813900"] ;
9 -> 10 ;
11 [label=<gini = 0.0<br/>samples = 1<br/>value = [0, 1]<br/>class = Survived>, fillcolor="#399de5ff"] ;
10 -> 11 ;
12 [label=<gini = 0.0<br/>samples = 1<br/>value = [1, 0]<br/>class = Died>, fillcolor="#e58139ff"] ;
10 -> 12 ;
13 [label=<Fare &le; 7.562<br/>gini = 0.278<br/>samples = 18<br/>value = [15, 3]<br/>class = Died>, fillcolor="#e58139cc"] ;
9 -> 13 ;
14 [label=<Parch &le; 0.5<br/>gini = 0.245<br/>samples = 14<br/>value = [12, 2]<br/>class = Died>, fillcolor="#e58139d4"] ;
13 -> 14 ;
15 [label=<Fare &le; 5.619<br/>gini = 0.26<br/>samples = 13<br/>value = [11, 2]<br/>class = Died>, fillcolor="#e58139d1"] ;
14 -> 15 ;
16 [label=<gini = 0.0<br/>samples = 1<br/>value = [1, 0]<br/>class = Died>, fillcolor="#e58139ff"] ;
15 -> 16 ;
17 [label=<Fare &le; 7.227<br/>gini = 0.278<br/>samples = 12<br/>value = [10, 2]<br/>class = Died>, fillcolor="#e58139cc"] ;
15 -> 17 ;
18 [label=<gini = 0.32<br/>samples = 5<br/>value = [4, 1]<br/>class = Died>, fillcolor="#e58139bf"] ;
17 -> 18 ;
19 [label=<gini = 0.245<br/>samples = 7<br/>value = [6, 1]<br/>class = Died>, fillcolor="#e58139d4"] ;
17 -> 19 ;
20 [label=<gini = 0.0<br/>samples = 1<br/>value = [1, 0]<br/>class = Died>, fillcolor="#e58139ff"] ;
14 -> 20 ;
21 [label=<Fare &le; 8.304<br/>gini = 0.375<br/>samples = 4<br/>value = [3, 1]<br/>class = Died>, fillcolor="#e58139aa"] ;
13 -> 21 ;
22 [label=<gini = 0.444<br/>samples = 3<br/>value = [2, 1]<br/>class = Died>, fillcolor="#e581397f"] ;
21 -> 22 ;
23 [label=<gini = 0.0<br/>samples = 1<br/>value = [1, 0]<br/>class = Died>, fillcolor="#e58139ff"] ;
21 -> 23 ;
24 [label=<gini = 0.0<br/>samples = 5<br/>value = [5, 0]<br/>class = Died>, fillcolor="#e58139ff"] ;
6 -> 24 ;
25 [label=<Fare &le; 20.233<br/>gini = 0.48<br/>samples = 5<br/>value = [3, 2]<br/>class = Died>, fillcolor="#e5813955"] ;
5 -> 25 ;
26 [label=<Age &le; 0.5<br/>gini = 0.444<br/>samples = 3<br/>value = [1, 2]<br/>class = Survived>, fillcolor="#399de57f"] ;
25 -> 26 ;
27 [label=<gini = 0.0<br/>samples = 1<br/>value = [1, 0]<br/>class = Died>, fillcolor="#e58139ff"] ;
26 -> 27 ;
28 [label=<gini = 0.0<br/>samples = 2<br/>value = [0, 2]<br/>class = Survived>, fillcolor="#399de5ff"] ;
26 -> 28 ;
29 [label=<gini = 0.0<br/>samples = 2<br/>value = [2, 0]<br/>class = Died>, fillcolor="#e58139ff"] ;
25 -> 29 ;
30 [label=<Fare &le; 9.673<br/>gini = 0.191<br/>samples = 225<br/>value = [201, 24]<br/>class = Died>, fillcolor="#e58139e1"] ;
4 -> 30 ;
31 [label=<Fare &le; 9.492<br/>gini = 0.213<br/>samples = 165<br/>value = [145, 20]<br/>class = Died>, fillcolor="#e58139dc"] ;
30 -> 31 ;
32 [label=<Fare &le; 7.746<br/>gini = 0.202<br/>samples = 158<br/>value = [140, 18]<br/>class = Died>, fillcolor="#e58139de"] ;
31 -> 32 ;
33 [label=<Fare &le; 7.196<br/>gini = 0.13<br/>samples = 43<br/>value = [40, 3]<br/>class = Died>, fillcolor="#e58139ec"] ;
32 -> 33 ;
34 [label=<Fare &le; 7.133<br/>gini = 0.227<br/>samples = 23<br/>value = [20, 3]<br/>class = Died>, fillcolor="#e58139d9"] ;
33 -> 34 ;
35 [label=<Fare &le; 7.01<br/>gini = 0.165<br/>samples = 22<br/>value = [20, 2]<br/>class = Died>, fillcolor="#e58139e6"] ;
34 -> 35 ;
36 [label=<Fare &le; 6.962<br/>gini = 0.26<br/>samples = 13<br/>value = [11, 2]<br/>class = Died>, fillcolor="#e58139d1"] ;
35 -> 36 ;
37 [label=<Pclass &le; 2.5<br/>gini = 0.153<br/>samples = 12<br/>value = [11, 1]<br/>class = Died>, fillcolor="#e58139e8"] ;
36 -> 37 ;
38 [label=<gini = 0.0<br/>samples = 6<br/>value = [6, 0]<br/>class = Died>, fillcolor="#e58139ff"] ;
37 -> 38 ;
39 [label=<Fare &le; 3.248<br/>gini = 0.278<br/>samples = 6<br/>value = [5, 1]<br/>class = Died>, fillcolor="#e58139cc"] ;
37 -> 39 ;
40 [label=<gini = 0.5<br/>samples = 2<br/>value = [1, 1]<br/>class = Died>, fillcolor="#e5813900"] ;
39 -> 40 ;
41 [label=<gini = 0.0<br/>samples = 4<br/>value = [4, 0]<br/>class = Died>, fillcolor="#e58139ff"] ;
39 -> 41 ;
42 [label=<gini = 0.0<br/>samples = 1<br/>value = [0, 1]<br/>class = Survived>, fillcolor="#399de5ff"] ;
36 -> 42 ;
43 [label=<gini = 0.0<br/>samples = 9<br/>value = [9, 0]<br/>class = Died>, fillcolor="#e58139ff"] ;
35 -> 43 ;
44 [label=<gini = 0.0<br/>samples = 1<br/>value = [0, 1]<br/>class = Survived>, fillcolor="#399de5ff"] ;
34 -> 44 ;
45 [label=<gini = 0.0<br/>samples = 20<br/>value = [20, 0]<br/>class = Died>, fillcolor="#e58139ff"] ;
33 -> 45 ;
46 [label=<Fare &le; 7.798<br/>gini = 0.227<br/>samples = 115<br/>value = [100, 15]<br/>class = Died>, fillcolor="#e58139d9"] ;
32 -> 46 ;
47 [label=<Age &le; 0.5<br/>gini = 0.346<br/>samples = 27<br/>value = [21, 6]<br/>class = Died>, fillcolor="#e58139b6"] ;
46 -> 47 ;
48 [label=<gini = 0.0<br/>samples = 2<br/>value = [2, 0]<br/>class = Died>, fillcolor="#e58139ff"] ;
47 -> 48 ;
49 [label=<Fare &le; 7.785<br/>gini = 0.365<br/>samples = 25<br/>value = [19, 6]<br/>class = Died>, fillcolor="#e58139ae"] ;
47 -> 49 ;
50 [label=<SibSp &le; 0.5<br/>gini = 0.332<br/>samples = 19<br/>value = [15, 4]<br/>class = Died>, fillcolor="#e58139bb"] ;
49 -> 50 ;
51 [label=<Embarked_code &le; 1.5<br/>gini = 0.305<br/>samples = 16<br/>value = [13, 3]<br/>class = Died>, fillcolor="#e58139c4"] ;
50 -> 51 ;
52 [label=<gini = 0.375<br/>samples = 8<br/>value = [6, 2]<br/>class = Died>, fillcolor="#e58139aa"] ;
51 -> 52 ;
53 [label=<Fare &le; 7.762<br/>gini = 0.219<br/>samples = 8<br/>value = [7, 1]<br/>class = Died>, fillcolor="#e58139db"] ;
51 -> 53 ;
54 [label=<gini = 0.0<br/>samples = 1<br/>value = [1, 0]<br/>class = Died>, fillcolor="#e58139ff"] ;
53 -> 54 ;
55 [label=<gini = 0.245<br/>samples = 7<br/>value = [6, 1]<br/>class = Died>, fillcolor="#e58139d4"] ;
53 -> 55 ;
56 [label=<Embarked_code &le; 1.5<br/>gini = 0.444<br/>samples = 3<br/>value = [2, 1]<br/>class = Died>, fillcolor="#e581397f"] ;
50 -> 56 ;
57 [label=<gini = 0.0<br/>samples = 1<br/>value = [1, 0]<br/>class = Died>, fillcolor="#e58139ff"] ;
56 -> 57 ;
58 [label=<gini = 0.5<br/>samples = 2<br/>value = [1, 1]<br/>class = Died>, fillcolor="#e5813900"] ;
56 -> 58 ;
59 [label=<gini = 0.444<br/>samples = 6<br/>value = [4, 2]<br/>class = Died>, fillcolor="#e581397f"] ;
49 -> 59 ;
60 [label=<Fare &le; 7.91<br/>gini = 0.184<br/>samples = 88<br/>value = [79, 9]<br/>class = Died>, fillcolor="#e58139e2"] ;
46 -> 60 ;
61 [label=<Fare &le; 7.865<br/>gini = 0.057<br/>samples = 34<br/>value = [33, 1]<br/>class = Died>, fillcolor="#e58139f7"] ;
60 -> 61 ;
62 [label=<Family_size &le; 0.5<br/>gini = 0.198<br/>samples = 9<br/>value = [8, 1]<br/>class = Died>, fillcolor="#e58139df"] ;
61 -> 62 ;
63 [label=<Fare &le; 7.827<br/>gini = 0.245<br/>samples = 7<br/>value = [6, 1]<br/>class = Died>, fillcolor="#e58139d4"] ;
62 -> 63 ;
64 [label=<gini = 0.0<br/>samples = 1<br/>value = [1, 0]<br/>class = Died>, fillcolor="#e58139ff"] ;
63 -> 64 ;
65 [label=<gini = 0.278<br/>samples = 6<br/>value = [5, 1]<br/>class = Died>, fillcolor="#e58139cc"] ;
63 -> 65 ;
66 [label=<gini = 0.0<br/>samples = 2<br/>value = [2, 0]<br/>class = Died>, fillcolor="#e58139ff"] ;
62 -> 66 ;
67 [label=<gini = 0.0<br/>samples = 25<br/>value = [25, 0]<br/>class = Died>, fillcolor="#e58139ff"] ;
61 -> 67 ;
68 [label=<Fare &le; 7.988<br/>gini = 0.252<br/>samples = 54<br/>value = [46, 8]<br/>class = Died>, fillcolor="#e58139d3"] ;
60 -> 68 ;
69 [label=<SibSp &le; 1.5<br/>gini = 0.444<br/>samples = 9<br/>value = [6, 3]<br/>class = Died>, fillcolor="#e581397f"] ;
68 -> 69 ;
70 [label=<Family_size &le; 0.5<br/>gini = 0.469<br/>samples = 8<br/>value = [5, 3]<br/>class = Died>, fillcolor="#e5813966"] ;
69 -> 70 ;
71 [label=<gini = 0.408<br/>samples = 7<br/>value = [5, 2]<br/>class = Died>, fillcolor="#e5813999"] ;
70 -> 71 ;
72 [label=<gini = 0.0<br/>samples = 1<br/>value = [0, 1]<br/>class = Survived>, fillcolor="#399de5ff"] ;
70 -> 72 ;
73 [label=<gini = 0.0<br/>samples = 1<br/>value = [1, 0]<br/>class = Died>, fillcolor="#e58139ff"] ;
69 -> 73 ;
74 [label=<Age &le; 0.5<br/>gini = 0.198<br/>samples = 45<br/>value = [40, 5]<br/>class = Died>, fillcolor="#e58139df"] ;
68 -> 74 ;
75 [label=<Fare &le; 8.633<br/>gini = 0.444<br/>samples = 3<br/>value = [2, 1]<br/>class = Died>, fillcolor="#e581397f"] ;
74 -> 75 ;
76 [label=<gini = 0.5<br/>samples = 2<br/>value = [1, 1]<br/>class = Died>, fillcolor="#e5813900"] ;
75 -> 76 ;
77 [label=<gini = 0.0<br/>samples = 1<br/>value = [1, 0]<br/>class = Died>, fillcolor="#e58139ff"] ;
75 -> 77 ;
78 [label=<Fare &le; 8.831<br/>gini = 0.172<br/>samples = 42<br/>value = [38, 4]<br/>class = Died>, fillcolor="#e58139e4"] ;
74 -> 78 ;
79 [label=<Embarked_code &le; 1.5<br/>gini = 0.193<br/>samples = 37<br/>value = [33, 4]<br/>class = Died>, fillcolor="#e58139e0"] ;
78 -> 79 ;
80 [label=<gini = 0.0<br/>samples = 1<br/>value = [1, 0]<br/>class = Died>, fillcolor="#e58139ff"] ;
79 -> 80 ;
81 [label=<SibSp &le; 1.0<br/>gini = 0.198<br/>samples = 36<br/>value = [32, 4]<br/>class = Died>, fillcolor="#e58139df"] ;
79 -> 81 ;
82 [label=<Fare &le; 8.548<br/>gini = 0.202<br/>samples = 35<br/>value = [31, 4]<br/>class = Died>, fillcolor="#e58139de"] ;
81 -> 82 ;
83 [label=<Fare &le; 8.104<br/>gini = 0.185<br/>samples = 29<br/>value = [26, 3]<br/>class = Died>, fillcolor="#e58139e2"] ;
82 -> 83 ;
84 [label=<gini = 0.211<br/>samples = 25<br/>value = [22, 3]<br/>class = Died>, fillcolor="#e58139dc"] ;
83 -> 84 ;
85 [label=<gini = 0.0<br/>samples = 4<br/>value = [4, 0]<br/>class = Died>, fillcolor="#e58139ff"] ;
83 -> 85 ;
86 [label=<gini = 0.278<br/>samples = 6<br/>value = [5, 1]<br/>class = Died>, fillcolor="#e58139cc"] ;
82 -> 86 ;
87 [label=<gini = 0.0<br/>samples = 1<br/>value = [1, 0]<br/>class = Died>, fillcolor="#e58139ff"] ;
81 -> 87 ;
88 [label=<gini = 0.0<br/>samples = 5<br/>value = [5, 0]<br/>class = Died>, fillcolor="#e58139ff"] ;
78 -> 88 ;
89 [label=<Age &le; 0.5<br/>gini = 0.408<br/>samples = 7<br/>value = [5, 2]<br/>class = Died>, fillcolor="#e5813999"] ;
31 -> 89 ;
90 [label=<gini = 0.0<br/>samples = 1<br/>value = [1, 0]<br/>class = Died>, fillcolor="#e58139ff"] ;
89 -> 90 ;
91 [label=<gini = 0.444<br/>samples = 6<br/>value = [4, 2]<br/>class = Died>, fillcolor="#e581397f"] ;
89 -> 91 ;
92 [label=<Fare &le; 22.888<br/>gini = 0.124<br/>samples = 60<br/>value = [56, 4]<br/>class = Died>, fillcolor="#e58139ed"] ;
30 -> 92 ;
93 [label=<Pclass &le; 2.5<br/>gini = 0.075<br/>samples = 51<br/>value = [49, 2]<br/>class = Died>, fillcolor="#e58139f5"] ;
92 -> 93 ;
94 [label=<Fare &le; 11.0<br/>gini = 0.121<br/>samples = 31<br/>value = [29, 2]<br/>class = Died>, fillcolor="#e58139ed"] ;
93 -> 94 ;
95 [label=<Age &le; 0.5<br/>gini = 0.18<br/>samples = 10<br/>value = [9, 1]<br/>class = Died>, fillcolor="#e58139e3"] ;
94 -> 95 ;
96 [label=<gini = 0.0<br/>samples = 1<br/>value = [1, 0]<br/>class = Died>, fillcolor="#e58139ff"] ;
95 -> 96 ;
97 [label=<gini = 0.198<br/>samples = 9<br/>value = [8, 1]<br/>class = Died>, fillcolor="#e58139df"] ;
95 -> 97 ;
98 [label=<Fare &le; 12.25<br/>gini = 0.091<br/>samples = 21<br/>value = [20, 1]<br/>class = Died>, fillcolor="#e58139f2"] ;
94 -> 98 ;
99 [label=<gini = 0.0<br/>samples = 4<br/>value = [4, 0]<br/>class = Died>, fillcolor="#e58139ff"] ;
98 -> 99 ;
100 [label=<Fare &le; 13.25<br/>gini = 0.111<br/>samples = 17<br/>value = [16, 1]<br/>class = Died>, fillcolor="#e58139ef"] ;
98 -> 100 ;
101 [label=<gini = 0.124<br/>samples = 15<br/>value = [14, 1]<br/>class = Died>, fillcolor="#e58139ed"] ;
100 -> 101 ;
102 [label=<gini = 0.0<br/>samples = 2<br/>value = [2, 0]<br/>class = Died>, fillcolor="#e58139ff"] ;
100 -> 102 ;
103 [label=<gini = 0.0<br/>samples = 20<br/>value = [20, 0]<br/>class = Died>, fillcolor="#e58139ff"] ;
93 -> 103 ;
104 [label=<Fare &le; 23.7<br/>gini = 0.346<br/>samples = 9<br/>value = [7, 2]<br/>class = Died>, fillcolor="#e58139b6"] ;
92 -> 104 ;
105 [label=<gini = 0.0<br/>samples = 1<br/>value = [0, 1]<br/>class = Survived>, fillcolor="#399de5ff"] ;
104 -> 105 ;
106 [label=<Family_size &le; 0.5<br/>gini = 0.219<br/>samples = 8<br/>value = [7, 1]<br/>class = Died>, fillcolor="#e58139db"] ;
104 -> 106 ;
107 [label=<gini = 0.0<br/>samples = 4<br/>value = [4, 0]<br/>class = Died>, fillcolor="#e58139ff"] ;
106 -> 107 ;
108 [label=<Fare &le; 25.075<br/>gini = 0.375<br/>samples = 4<br/>value = [3, 1]<br/>class = Died>, fillcolor="#e58139aa"] ;
106 -> 108 ;
109 [label=<gini = 0.0<br/>samples = 1<br/>value = [1, 0]<br/>class = Died>, fillcolor="#e58139ff"] ;
108 -> 109 ;
110 [label=<Parch &le; 0.5<br/>gini = 0.444<br/>samples = 3<br/>value = [2, 1]<br/>class = Died>, fillcolor="#e581397f"] ;
108 -> 110 ;
111 [label=<gini = 0.5<br/>samples = 2<br/>value = [1, 1]<br/>class = Died>, fillcolor="#e5813900"] ;
110 -> 111 ;
112 [label=<gini = 0.0<br/>samples = 1<br/>value = [1, 0]<br/>class = Died>, fillcolor="#e58139ff"] ;
110 -> 112 ;
113 [label=<Fare &le; 7.91<br/>gini = 0.112<br/>samples = 134<br/>value = [126, 8]<br/>class = Died>, fillcolor="#e58139ef"] ;
3 -> 113 ;
114 [label=<gini = 0.0<br/>samples = 56<br/>value = [56, 0]<br/>class = Died>, fillcolor="#e58139ff"] ;
113 -> 114 ;
115 [label=<Fare &le; 7.988<br/>gini = 0.184<br/>samples = 78<br/>value = [70, 8]<br/>class = Died>, fillcolor="#e58139e2"] ;
113 -> 115 ;
116 [label=<Family_size &le; 0.5<br/>gini = 0.5<br/>samples = 4<br/>value = [2, 2]<br/>class = Died>, fillcolor="#e5813900"] ;
115 -> 116 ;
117 [label=<gini = 0.444<br/>samples = 3<br/>value = [1, 2]<br/>class = Survived>, fillcolor="#399de57f"] ;
116 -> 117 ;
118 [label=<gini = 0.0<br/>samples = 1<br/>value = [1, 0]<br/>class = Died>, fillcolor="#e58139ff"] ;
116 -> 118 ;
119 [label=<Fare &le; 13.25<br/>gini = 0.149<br/>samples = 74<br/>value = [68, 6]<br/>class = Died>, fillcolor="#e58139e9"] ;
115 -> 119 ;
120 [label=<Fare &le; 12.938<br/>gini = 0.245<br/>samples = 42<br/>value = [36, 6]<br/>class = Died>, fillcolor="#e58139d4"] ;
119 -> 120 ;
121 [label=<Fare &le; 8.258<br/>gini = 0.175<br/>samples = 31<br/>value = [28, 3]<br/>class = Died>, fillcolor="#e58139e4"] ;
120 -> 121 ;
122 [label=<Fare &le; 8.081<br/>gini = 0.231<br/>samples = 15<br/>value = [13, 2]<br/>class = Died>, fillcolor="#e58139d8"] ;
121 -> 122 ;
123 [label=<Age &le; 2.5<br/>gini = 0.133<br/>samples = 14<br/>value = [13, 1]<br/>class = Died>, fillcolor="#e58139eb"] ;
122 -> 123 ;
124 [label=<gini = 0.165<br/>samples = 11<br/>value = [10, 1]<br/>class = Died>, fillcolor="#e58139e6"] ;
123 -> 124 ;
125 [label=<gini = 0.0<br/>samples = 3<br/>value = [3, 0]<br/>class = Died>, fillcolor="#e58139ff"] ;
123 -> 125 ;
126 [label=<gini = 0.0<br/>samples = 1<br/>value = [0, 1]<br/>class = Survived>, fillcolor="#399de5ff"] ;
122 -> 126 ;
127 [label=<Age &le; 2.5<br/>gini = 0.117<br/>samples = 16<br/>value = [15, 1]<br/>class = Died>, fillcolor="#e58139ee"] ;
121 -> 127 ;
128 [label=<gini = 0.0<br/>samples = 13<br/>value = [13, 0]<br/>class = Died>, fillcolor="#e58139ff"] ;
127 -> 128 ;
129 [label=<Age &le; 34.5<br/>gini = 0.444<br/>samples = 3<br/>value = [2, 1]<br/>class = Died>, fillcolor="#e581397f"] ;
127 -> 129 ;
130 [label=<gini = 0.0<br/>samples = 1<br/>value = [0, 1]<br/>class = Survived>, fillcolor="#399de5ff"] ;
129 -> 130 ;
131 [label=<gini = 0.0<br/>samples = 2<br/>value = [2, 0]<br/>class = Died>, fillcolor="#e58139ff"] ;
129 -> 131 ;
132 [label=<Age &le; 2.5<br/>gini = 0.397<br/>samples = 11<br/>value = [8, 3]<br/>class = Died>, fillcolor="#e581399f"] ;
120 -> 132 ;
133 [label=<gini = 0.444<br/>samples = 9<br/>value = [6, 3]<br/>class = Died>, fillcolor="#e581397f"] ;
132 -> 133 ;
134 [label=<gini = 0.0<br/>samples = 2<br/>value = [2, 0]<br/>class = Died>, fillcolor="#e58139ff"] ;
132 -> 134 ;
135 [label=<gini = 0.0<br/>samples = 32<br/>value = [32, 0]<br/>class = Died>, fillcolor="#e58139ff"] ;
119 -> 135 ;
136 [label=<Fare &le; 26.775<br/>gini = 0.443<br/>samples = 127<br/>value = [85, 42]<br/>class = Died>, fillcolor="#e5813981"] ;
2 -> 136 ;
137 [label=<Age &le; 2.5<br/>gini = 0.43<br/>samples = 16<br/>value = [5, 11]<br/>class = Survived>, fillcolor="#399de58b"] ;
136 -> 137 ;
138 [label=<Age &le; 1.5<br/>gini = 0.165<br/>samples = 11<br/>value = [1, 10]<br/>class = Survived>, fillcolor="#399de5e6"] ;
137 -> 138 ;
139 [label=<gini = 0.5<br/>samples = 2<br/>value = [1, 1]<br/>class = Died>, fillcolor="#e5813900"] ;
138 -> 139 ;
140 [label=<gini = 0.0<br/>samples = 9<br/>value = [0, 9]<br/>class = Survived>, fillcolor="#399de5ff"] ;
138 -> 140 ;
141 [label=<Age &le; 34.0<br/>gini = 0.32<br/>samples = 5<br/>value = [4, 1]<br/>class = Died>, fillcolor="#e58139bf"] ;
137 -> 141 ;
142 [label=<gini = 0.375<br/>samples = 4<br/>value = [3, 1]<br/>class = Died>, fillcolor="#e58139aa"] ;
141 -> 142 ;
143 [label=<gini = 0.0<br/>samples = 1<br/>value = [1, 0]<br/>class = Died>, fillcolor="#e58139ff"] ;
141 -> 143 ;
144 [label=<Fare &le; 387.665<br/>gini = 0.403<br/>samples = 111<br/>value = [80, 31]<br/>class = Died>, fillcolor="#e581399c"] ;
136 -> 144 ;
145 [label=<Family_size &le; 1.5<br/>gini = 0.391<br/>samples = 109<br/>value = [80, 29]<br/>class = Died>, fillcolor="#e58139a3"] ;
144 -> 145 ;
146 [label=<Pclass &le; 2.5<br/>gini = 0.417<br/>samples = 98<br/>value = [69, 29]<br/>class = Died>, fillcolor="#e5813994"] ;
145 -> 146 ;
147 [label=<Pclass &le; 1.5<br/>gini = 0.388<br/>samples = 91<br/>value = [67, 24]<br/>class = Died>, fillcolor="#e58139a4"] ;
146 -> 147 ;
148 [label=<SibSp &le; 0.5<br/>gini = 0.426<br/>samples = 78<br/>value = [54, 24]<br/>class = Died>, fillcolor="#e581398e"] ;
147 -> 148 ;
149 [label=<Age &le; 1.5<br/>gini = 0.355<br/>samples = 52<br/>value = [40, 12]<br/>class = Died>, fillcolor="#e58139b3"] ;
148 -> 149 ;
150 [label=<Fare &le; 123.258<br/>gini = 0.461<br/>samples = 25<br/>value = [16, 9]<br/>class = Died>, fillcolor="#e5813970"] ;
149 -> 150 ;
151 [label=<Fare &le; 28.875<br/>gini = 0.495<br/>samples = 20<br/>value = [11, 9]<br/>class = Died>, fillcolor="#e581392e"] ;
150 -> 151 ;
152 [label=<gini = 0.0<br/>samples = 2<br/>value = [2, 0]<br/>class = Died>, fillcolor="#e58139ff"] ;
151 -> 152 ;
153 [label=<Fare &le; 30.598<br/>gini = 0.5<br/>samples = 18<br/>value = [9, 9]<br/>class = Died>, fillcolor="#e5813900"] ;
151 -> 153 ;
154 [label=<Fare &le; 30.25<br/>gini = 0.32<br/>samples = 5<br/>value = [1, 4]<br/>class = Survived>, fillcolor="#399de5bf"] ;
153 -> 154 ;
155 [label=<Embarked_code &le; 1.0<br/>gini = 0.444<br/>samples = 3<br/>value = [1, 2]<br/>class = Survived>, fillcolor="#399de57f"] ;
154 -> 155 ;
156 [label=<gini = 0.0<br/>samples = 1<br/>value = [0, 1]<br/>class = Survived>, fillcolor="#399de5ff"] ;
155 -> 156 ;
157 [label=<gini = 0.5<br/>samples = 2<br/>value = [1, 1]<br/>class = Died>, fillcolor="#e5813900"] ;
155 -> 157 ;
158 [label=<gini = 0.0<br/>samples = 2<br/>value = [0, 2]<br/>class = Survived>, fillcolor="#399de5ff"] ;
154 -> 158 ;
159 [label=<Parch &le; 1.5<br/>gini = 0.473<br/>samples = 13<br/>value = [8, 5]<br/>class = Died>, fillcolor="#e5813960"] ;
153 -> 159 ;
160 [label=<Fare &le; 33.25<br/>gini = 0.444<br/>samples = 12<br/>value = [8, 4]<br/>class = Died>, fillcolor="#e581397f"] ;
159 -> 160 ;
161 [label=<gini = 0.0<br/>samples = 2<br/>value = [2, 0]<br/>class = Died>, fillcolor="#e58139ff"] ;
160 -> 161 ;
162 [label=<Fare &le; 41.3<br/>gini = 0.48<br/>samples = 10<br/>value = [6, 4]<br/>class = Died>, fillcolor="#e5813955"] ;
160 -> 162 ;
163 [label=<gini = 0.0<br/>samples = 2<br/>value = [0, 2]<br/>class = Survived>, fillcolor="#399de5ff"] ;
162 -> 163 ;
164 [label=<Embarked_code &le; 1.0<br/>gini = 0.375<br/>samples = 8<br/>value = [6, 2]<br/>class = Died>, fillcolor="#e58139aa"] ;
162 -> 164 ;
165 [label=<Fare &le; 77.965<br/>gini = 0.444<br/>samples = 3<br/>value = [1, 2]<br/>class = Survived>, fillcolor="#399de57f"] ;
164 -> 165 ;
166 [label=<gini = 0.0<br/>samples = 2<br/>value = [0, 2]<br/>class = Survived>, fillcolor="#399de5ff"] ;
165 -> 166 ;
167 [label=<gini = 0.0<br/>samples = 1<br/>value = [1, 0]<br/>class = Died>, fillcolor="#e58139ff"] ;
165 -> 167 ;
168 [label=<gini = 0.0<br/>samples = 5<br/>value = [5, 0]<br/>class = Died>, fillcolor="#e58139ff"] ;
164 -> 168 ;
169 [label=<gini = 0.0<br/>samples = 1<br/>value = [0, 1]<br/>class = Survived>, fillcolor="#399de5ff"] ;
159 -> 169 ;
170 [label=<gini = 0.0<br/>samples = 5<br/>value = [5, 0]<br/>class = Died>, fillcolor="#e58139ff"] ;
150 -> 170 ;
171 [label=<Age &le; 75.5<br/>gini = 0.198<br/>samples = 27<br/>value = [24, 3]<br/>class = Died>, fillcolor="#e58139df"] ;
149 -> 171 ;
172 [label=<Fare &le; 31.66<br/>gini = 0.142<br/>samples = 26<br/>value = [24, 2]<br/>class = Died>, fillcolor="#e58139ea"] ;
171 -> 172 ;
173 [label=<Fare &le; 30.848<br/>gini = 0.375<br/>samples = 8<br/>value = [6, 2]<br/>class = Died>, fillcolor="#e58139aa"] ;
172 -> 173 ;
174 [label=<Age &le; 2.5<br/>gini = 0.245<br/>samples = 7<br/>value = [6, 1]<br/>class = Died>, fillcolor="#e58139d4"] ;
173 -> 174 ;
175 [label=<Fare &le; 29.1<br/>gini = 0.375<br/>samples = 4<br/>value = [3, 1]<br/>class = Died>, fillcolor="#e58139aa"] ;
174 -> 175 ;
176 [label=<gini = 0.0<br/>samples = 2<br/>value = [2, 0]<br/>class = Died>, fillcolor="#e58139ff"] ;
175 -> 176 ;
177 [label=<Family_size &le; 0.5<br/>gini = 0.5<br/>samples = 2<br/>value = [1, 1]<br/>class = Died>, fillcolor="#e5813900"] ;
175 -> 177 ;
178 [label=<gini = 0.0<br/>samples = 1<br/>value = [0, 1]<br/>class = Survived>, fillcolor="#399de5ff"] ;
177 -> 178 ;
179 [label=<gini = 0.0<br/>samples = 1<br/>value = [1, 0]<br/>class = Died>, fillcolor="#e58139ff"] ;
177 -> 179 ;
180 [label=<gini = 0.0<br/>samples = 3<br/>value = [3, 0]<br/>class = Died>, fillcolor="#e58139ff"] ;
174 -> 180 ;
181 [label=<gini = 0.0<br/>samples = 1<br/>value = [0, 1]<br/>class = Survived>, fillcolor="#399de5ff"] ;
173 -> 181 ;
182 [label=<gini = 0.0<br/>samples = 18<br/>value = [18, 0]<br/>class = Died>, fillcolor="#e58139ff"] ;
172 -> 182 ;
183 [label=<gini = 0.0<br/>samples = 1<br/>value = [0, 1]<br/>class = Survived>, fillcolor="#399de5ff"] ;
171 -> 183 ;
184 [label=<Parch &le; 1.5<br/>gini = 0.497<br/>samples = 26<br/>value = [14, 12]<br/>class = Died>, fillcolor="#e5813924"] ;
148 -> 184 ;
185 [label=<Fare &le; 98.752<br/>gini = 0.493<br/>samples = 25<br/>value = [14, 11]<br/>class = Died>, fillcolor="#e5813937"] ;
184 -> 185 ;
186 [label=<Embarked_code &le; 1.0<br/>gini = 0.5<br/>samples = 22<br/>value = [11, 11]<br/>class = Died>, fillcolor="#e5813900"] ;
185 -> 186 ;
187 [label=<Fare &le; 80.685<br/>gini = 0.278<br/>samples = 6<br/>value = [1, 5]<br/>class = Survived>, fillcolor="#399de5cc"] ;
186 -> 187 ;
188 [label=<gini = 0.0<br/>samples = 3<br/>value = [0, 3]<br/>class = Survived>, fillcolor="#399de5ff"] ;
187 -> 188 ;
189 [label=<Fare &le; 85.637<br/>gini = 0.444<br/>samples = 3<br/>value = [1, 2]<br/>class = Survived>, fillcolor="#399de57f"] ;
187 -> 189 ;
190 [label=<gini = 0.0<br/>samples = 1<br/>value = [1, 0]<br/>class = Died>, fillcolor="#e58139ff"] ;
189 -> 190 ;
191 [label=<gini = 0.0<br/>samples = 2<br/>value = [0, 2]<br/>class = Survived>, fillcolor="#399de5ff"] ;
189 -> 191 ;
192 [label=<Fare &le; 86.738<br/>gini = 0.469<br/>samples = 16<br/>value = [10, 6]<br/>class = Died>, fillcolor="#e5813966"] ;
186 -> 192 ;
193 [label=<Fare &le; 59.088<br/>gini = 0.444<br/>samples = 15<br/>value = [10, 5]<br/>class = Died>, fillcolor="#e581397f"] ;
192 -> 193 ;
194 [label=<Fare &le; 56.45<br/>gini = 0.5<br/>samples = 10<br/>value = [5, 5]<br/>class = Died>, fillcolor="#e5813900"] ;
193 -> 194 ;
195 [label=<Parch &le; 0.5<br/>gini = 0.494<br/>samples = 9<br/>value = [5, 4]<br/>class = Died>, fillcolor="#e5813933"] ;
194 -> 195 ;
196 [label=<Fare &le; 54.5<br/>gini = 0.469<br/>samples = 8<br/>value = [5, 3]<br/>class = Died>, fillcolor="#e5813966"] ;
195 -> 196 ;
197 [label=<Age &le; 1.5<br/>gini = 0.49<br/>samples = 7<br/>value = [4, 3]<br/>class = Died>, fillcolor="#e5813940"] ;
196 -> 197 ;
198 [label=<Fare &le; 52.55<br/>gini = 0.444<br/>samples = 3<br/>value = [2, 1]<br/>class = Died>, fillcolor="#e581397f"] ;
197 -> 198 ;
199 [label=<gini = 0.0<br/>samples = 1<br/>value = [1, 0]<br/>class = Died>, fillcolor="#e58139ff"] ;
198 -> 199 ;
200 [label=<gini = 0.5<br/>samples = 2<br/>value = [1, 1]<br/>class = Died>, fillcolor="#e5813900"] ;
198 -> 200 ;
201 [label=<Fare &le; 52.827<br/>gini = 0.5<br/>samples = 4<br/>value = [2, 2]<br/>class = Died>, fillcolor="#e5813900"] ;
197 -> 201 ;
202 [label=<Fare &le; 52.277<br/>gini = 0.444<br/>samples = 3<br/>value = [1, 2]<br/>class = Survived>, fillcolor="#399de57f"] ;
201 -> 202 ;
203 [label=<gini = 0.5<br/>samples = 2<br/>value = [1, 1]<br/>class = Died>, fillcolor="#e5813900"] ;
202 -> 203 ;
204 [label=<gini = 0.0<br/>samples = 1<br/>value = [0, 1]<br/>class = Survived>, fillcolor="#399de5ff"] ;
202 -> 204 ;
205 [label=<gini = 0.0<br/>samples = 1<br/>value = [1, 0]<br/>class = Died>, fillcolor="#e58139ff"] ;
201 -> 205 ;
206 [label=<gini = 0.0<br/>samples = 1<br/>value = [1, 0]<br/>class = Died>, fillcolor="#e58139ff"] ;
196 -> 206 ;
207 [label=<gini = 0.0<br/>samples = 1<br/>value = [0, 1]<br/>class = Survived>, fillcolor="#399de5ff"] ;
195 -> 207 ;
208 [label=<gini = 0.0<br/>samples = 1<br/>value = [0, 1]<br/>class = Survived>, fillcolor="#399de5ff"] ;
194 -> 208 ;
209 [label=<gini = 0.0<br/>samples = 5<br/>value = [5, 0]<br/>class = Died>, fillcolor="#e58139ff"] ;
193 -> 209 ;
210 [label=<gini = 0.0<br/>samples = 1<br/>value = [0, 1]<br/>class = Survived>, fillcolor="#399de5ff"] ;
192 -> 210 ;
211 [label=<gini = 0.0<br/>samples = 3<br/>value = [3, 0]<br/>class = Died>, fillcolor="#e58139ff"] ;
185 -> 211 ;
212 [label=<gini = 0.0<br/>samples = 1<br/>value = [0, 1]<br/>class = Survived>, fillcolor="#399de5ff"] ;
184 -> 212 ;
213 [label=<gini = 0.0<br/>samples = 13<br/>value = [13, 0]<br/>class = Died>, fillcolor="#e58139ff"] ;
147 -> 213 ;
214 [label=<Age &le; 0.5<br/>gini = 0.408<br/>samples = 7<br/>value = [2, 5]<br/>class = Survived>, fillcolor="#399de599"] ;
146 -> 214 ;
215 [label=<gini = 0.0<br/>samples = 1<br/>value = [1, 0]<br/>class = Died>, fillcolor="#e58139ff"] ;
214 -> 215 ;
216 [label=<Age &le; 1.5<br/>gini = 0.278<br/>samples = 6<br/>value = [1, 5]<br/>class = Survived>, fillcolor="#399de5cc"] ;
214 -> 216 ;
217 [label=<gini = 0.32<br/>samples = 5<br/>value = [1, 4]<br/>class = Survived>, fillcolor="#399de5bf"] ;
216 -> 217 ;
218 [label=<gini = 0.0<br/>samples = 1<br/>value = [0, 1]<br/>class = Survived>, fillcolor="#399de5ff"] ;
216 -> 218 ;
219 [label=<gini = 0.0<br/>samples = 11<br/>value = [11, 0]<br/>class = Died>, fillcolor="#e58139ff"] ;
145 -> 219 ;
220 [label=<gini = 0.0<br/>samples = 2<br/>value = [0, 2]<br/>class = Survived>, fillcolor="#399de5ff"] ;
144 -> 220 ;
221 [label=<Family_size &le; 1.5<br/>gini = 0.498<br/>samples = 60<br/>value = [32, 28]<br/>class = Died>, fillcolor="#e5813920"] ;
1 -> 221 ;
222 [label=<Age &le; 0.5<br/>gini = 0.459<br/>samples = 42<br/>value = [15, 27]<br/>class = Survived>, fillcolor="#399de571"] ;
221 -> 222 ;
223 [label=<gini = 0.0<br/>samples = 20<br/>value = [0, 20]<br/>class = Survived>, fillcolor="#399de5ff"] ;
222 -> 223 ;
224 [label=<Embarked_code &le; 0.5<br/>gini = 0.434<br/>samples = 22<br/>value = [15, 7]<br/>class = Died>, fillcolor="#e5813988"] ;
222 -> 224 ;
225 [label=<SibSp &le; 0.5<br/>gini = 0.408<br/>samples = 7<br/>value = [2, 5]<br/>class = Survived>, fillcolor="#399de599"] ;
224 -> 225 ;
226 [label=<Age &le; 2.5<br/>gini = 0.5<br/>samples = 4<br/>value = [2, 2]<br/>class = Died>, fillcolor="#e5813900"] ;
225 -> 226 ;
227 [label=<Age &le; 1.5<br/>gini = 0.444<br/>samples = 3<br/>value = [2, 1]<br/>class = Died>, fillcolor="#e581397f"] ;
226 -> 227 ;
228 [label=<Fare &le; 35.05<br/>gini = 0.5<br/>samples = 2<br/>value = [1, 1]<br/>class = Died>, fillcolor="#e5813900"] ;
227 -> 228 ;
229 [label=<gini = 0.0<br/>samples = 1<br/>value = [0, 1]<br/>class = Survived>, fillcolor="#399de5ff"] ;
228 -> 229 ;
230 [label=<gini = 0.0<br/>samples = 1<br/>value = [1, 0]<br/>class = Died>, fillcolor="#e58139ff"] ;
228 -> 230 ;
231 [label=<gini = 0.0<br/>samples = 1<br/>value = [1, 0]<br/>class = Died>, fillcolor="#e58139ff"] ;
227 -> 231 ;
232 [label=<gini = 0.0<br/>samples = 1<br/>value = [0, 1]<br/>class = Survived>, fillcolor="#399de5ff"] ;
226 -> 232 ;
233 [label=<gini = 0.0<br/>samples = 3<br/>value = [0, 3]<br/>class = Survived>, fillcolor="#399de5ff"] ;
225 -> 233 ;
234 [label=<Fare &le; 111.825<br/>gini = 0.231<br/>samples = 15<br/>value = [13, 2]<br/>class = Died>, fillcolor="#e58139d8"] ;
224 -> 234 ;
235 [label=<Fare &le; 28.525<br/>gini = 0.133<br/>samples = 14<br/>value = [13, 1]<br/>class = Died>, fillcolor="#e58139eb"] ;
234 -> 235 ;
236 [label=<gini = 0.0<br/>samples = 10<br/>value = [10, 0]<br/>class = Died>, fillcolor="#e58139ff"] ;
235 -> 236 ;
237 [label=<Fare &le; 31.75<br/>gini = 0.375<br/>samples = 4<br/>value = [3, 1]<br/>class = Died>, fillcolor="#e58139aa"] ;
235 -> 237 ;
238 [label=<gini = 0.0<br/>samples = 1<br/>value = [0, 1]<br/>class = Survived>, fillcolor="#399de5ff"] ;
237 -> 238 ;
239 [label=<gini = 0.0<br/>samples = 3<br/>value = [3, 0]<br/>class = Died>, fillcolor="#e58139ff"] ;
237 -> 239 ;
240 [label=<gini = 0.0<br/>samples = 1<br/>value = [0, 1]<br/>class = Survived>, fillcolor="#399de5ff"] ;
234 -> 240 ;
241 [label=<Parch &le; 1.5<br/>gini = 0.105<br/>samples = 18<br/>value = [17, 1]<br/>class = Died>, fillcolor="#e58139f0"] ;
221 -> 241 ;
242 [label=<gini = 0.0<br/>samples = 9<br/>value = [9, 0]<br/>class = Died>, fillcolor="#e58139ff"] ;
241 -> 242 ;
243 [label=<Fare &le; 39.144<br/>gini = 0.198<br/>samples = 9<br/>value = [8, 1]<br/>class = Died>, fillcolor="#e58139df"] ;
241 -> 243 ;
244 [label=<Fare &le; 31.331<br/>gini = 0.32<br/>samples = 5<br/>value = [4, 1]<br/>class = Died>, fillcolor="#e58139bf"] ;
243 -> 244 ;
245 [label=<gini = 0.0<br/>samples = 3<br/>value = [3, 0]<br/>class = Died>, fillcolor="#e58139ff"] ;
244 -> 245 ;
246 [label=<gini = 0.5<br/>samples = 2<br/>value = [1, 1]<br/>class = Died>, fillcolor="#e5813900"] ;
244 -> 246 ;
247 [label=<gini = 0.0<br/>samples = 4<br/>value = [4, 0]<br/>class = Died>, fillcolor="#e58139ff"] ;
243 -> 247 ;
248 [label=<Pclass &le; 2.5<br/>gini = 0.383<br/>samples = 314<br/>value = [81, 233]<br/>class = Survived>, fillcolor="#399de5a6"] ;
0 -> 248 [labeldistance=2.5, labelangle=-45, headlabel="False"] ;
249 [label=<Fare &le; 28.856<br/>gini = 0.1<br/>samples = 170<br/>value = [9, 161]<br/>class = Survived>, fillcolor="#399de5f1"] ;
248 -> 249 ;
250 [label=<Fare &le; 28.231<br/>gini = 0.18<br/>samples = 70<br/>value = [7, 63]<br/>class = Survived>, fillcolor="#399de5e3"] ;
249 -> 250 ;
251 [label=<Parch &le; 1.5<br/>gini = 0.159<br/>samples = 69<br/>value = [6, 63]<br/>class = Survived>, fillcolor="#399de5e7"] ;
250 -> 251 ;
252 [label=<SibSp &le; 0.5<br/>gini = 0.183<br/>samples = 59<br/>value = [6, 53]<br/>class = Survived>, fillcolor="#399de5e2"] ;
251 -> 252 ;
253 [label=<Fare &le; 13.25<br/>gini = 0.136<br/>samples = 41<br/>value = [3, 38]<br/>class = Survived>, fillcolor="#399de5eb"] ;
252 -> 253 ;
254 [label=<Age &le; 2.5<br/>gini = 0.211<br/>samples = 25<br/>value = [3, 22]<br/>class = Survived>, fillcolor="#399de5dc"] ;
253 -> 254 ;
255 [label=<Fare &le; 12.825<br/>gini = 0.165<br/>samples = 22<br/>value = [2, 20]<br/>class = Survived>, fillcolor="#399de5e6"] ;
254 -> 255 ;
256 [label=<gini = 0.0<br/>samples = 9<br/>value = [0, 9]<br/>class = Survived>, fillcolor="#399de5ff"] ;
255 -> 256 ;
257 [label=<Title_code &le; 3.0<br/>gini = 0.26<br/>samples = 13<br/>value = [2, 11]<br/>class = Survived>, fillcolor="#399de5d1"] ;
255 -> 257 ;
258 [label=<Age &le; 1.5<br/>gini = 0.32<br/>samples = 10<br/>value = [2, 8]<br/>class = Survived>, fillcolor="#399de5bf"] ;
257 -> 258 ;
259 [label=<gini = 0.278<br/>samples = 6<br/>value = [1, 5]<br/>class = Survived>, fillcolor="#399de5cc"] ;
258 -> 259 ;
260 [label=<gini = 0.375<br/>samples = 4<br/>value = [1, 3]<br/>class = Survived>, fillcolor="#399de5aa"] ;
258 -> 260 ;
261 [label=<gini = 0.0<br/>samples = 3<br/>value = [0, 3]<br/>class = Survived>, fillcolor="#399de5ff"] ;
257 -> 261 ;
262 [label=<Title_code &le; 3.0<br/>gini = 0.444<br/>samples = 3<br/>value = [1, 2]<br/>class = Survived>, fillcolor="#399de57f"] ;
254 -> 262 ;
263 [label=<gini = 0.0<br/>samples = 2<br/>value = [0, 2]<br/>class = Survived>, fillcolor="#399de5ff"] ;
262 -> 263 ;
264 [label=<gini = 0.0<br/>samples = 1<br/>value = [1, 0]<br/>class = Died>, fillcolor="#e58139ff"] ;
262 -> 264 ;
265 [label=<gini = 0.0<br/>samples = 16<br/>value = [0, 16]<br/>class = Survived>, fillcolor="#399de5ff"] ;
253 -> 265 ;
266 [label=<Fare &le; 26.125<br/>gini = 0.278<br/>samples = 18<br/>value = [3, 15]<br/>class = Survived>, fillcolor="#399de5cc"] ;
252 -> 266 ;
267 [label=<Title_code &le; 3.0<br/>gini = 0.32<br/>samples = 15<br/>value = [3, 12]<br/>class = Survived>, fillcolor="#399de5bf"] ;
266 -> 267 ;
268 [label=<gini = 0.0<br/>samples = 3<br/>value = [0, 3]<br/>class = Survived>, fillcolor="#399de5ff"] ;
267 -> 268 ;
269 [label=<Parch &le; 0.5<br/>gini = 0.375<br/>samples = 12<br/>value = [3, 9]<br/>class = Survived>, fillcolor="#399de5aa"] ;
267 -> 269 ;
270 [label=<Fare &le; 22.5<br/>gini = 0.298<br/>samples = 11<br/>value = [2, 9]<br/>class = Survived>, fillcolor="#399de5c6"] ;
269 -> 270 ;
271 [label=<SibSp &le; 2.0<br/>gini = 0.5<br/>samples = 2<br/>value = [1, 1]<br/>class = Died>, fillcolor="#e5813900"] ;
270 -> 271 ;
272 [label=<gini = 0.0<br/>samples = 1<br/>value = [1, 0]<br/>class = Died>, fillcolor="#e58139ff"] ;
271 -> 272 ;
273 [label=<gini = 0.0<br/>samples = 1<br/>value = [0, 1]<br/>class = Survived>, fillcolor="#399de5ff"] ;
271 -> 273 ;
274 [label=<Age &le; 1.5<br/>gini = 0.198<br/>samples = 9<br/>value = [1, 8]<br/>class = Survived>, fillcolor="#399de5df"] ;
270 -> 274 ;
275 [label=<gini = 0.0<br/>samples = 6<br/>value = [0, 6]<br/>class = Survived>, fillcolor="#399de5ff"] ;
274 -> 275 ;
276 [label=<gini = 0.444<br/>samples = 3<br/>value = [1, 2]<br/>class = Survived>, fillcolor="#399de57f"] ;
274 -> 276 ;
277 [label=<gini = 0.0<br/>samples = 1<br/>value = [1, 0]<br/>class = Died>, fillcolor="#e58139ff"] ;
269 -> 277 ;
278 [label=<gini = 0.0<br/>samples = 3<br/>value = [0, 3]<br/>class = Survived>, fillcolor="#399de5ff"] ;
266 -> 278 ;
279 [label=<gini = 0.0<br/>samples = 10<br/>value = [0, 10]<br/>class = Survived>, fillcolor="#399de5ff"] ;
251 -> 279 ;
280 [label=<gini = 0.0<br/>samples = 1<br/>value = [1, 0]<br/>class = Died>, fillcolor="#e58139ff"] ;
250 -> 280 ;
281 [label=<Parch &le; 1.5<br/>gini = 0.039<br/>samples = 100<br/>value = [2, 98]<br/>class = Survived>, fillcolor="#399de5fa"] ;
249 -> 281 ;
282 [label=<gini = 0.0<br/>samples = 84<br/>value = [0, 84]<br/>class = Survived>, fillcolor="#399de5ff"] ;
281 -> 282 ;
283 [label=<Fare &le; 135.775<br/>gini = 0.219<br/>samples = 16<br/>value = [2, 14]<br/>class = Survived>, fillcolor="#399de5db"] ;
281 -> 283 ;
284 [label=<gini = 0.0<br/>samples = 9<br/>value = [0, 9]<br/>class = Survived>, fillcolor="#399de5ff"] ;
283 -> 284 ;
285 [label=<Fare &le; 158.208<br/>gini = 0.408<br/>samples = 7<br/>value = [2, 5]<br/>class = Survived>, fillcolor="#399de599"] ;
283 -> 285 ;
286 [label=<gini = 0.0<br/>samples = 2<br/>value = [2, 0]<br/>class = Died>, fillcolor="#e58139ff"] ;
285 -> 286 ;
287 [label=<gini = 0.0<br/>samples = 5<br/>value = [0, 5]<br/>class = Survived>, fillcolor="#399de5ff"] ;
285 -> 287 ;
288 [label=<Fare &le; 23.35<br/>gini = 0.5<br/>samples = 144<br/>value = [72, 72]<br/>class = Died>, fillcolor="#e5813900"] ;
248 -> 288 ;
289 [label=<Embarked_code &le; 1.5<br/>gini = 0.484<br/>samples = 117<br/>value = [48, 69]<br/>class = Survived>, fillcolor="#399de54e"] ;
288 -> 289 ;
290 [label=<Fare &le; 15.621<br/>gini = 0.417<br/>samples = 54<br/>value = [16, 38]<br/>class = Survived>, fillcolor="#399de594"] ;
289 -> 290 ;
291 [label=<Fare &le; 13.935<br/>gini = 0.454<br/>samples = 46<br/>value = [16, 30]<br/>class = Survived>, fillcolor="#399de577"] ;
290 -> 291 ;
292 [label=<Fare &le; 6.988<br/>gini = 0.342<br/>samples = 32<br/>value = [7, 25]<br/>class = Survived>, fillcolor="#399de5b8"] ;
291 -> 292 ;
293 [label=<gini = 0.0<br/>samples = 1<br/>value = [1, 0]<br/>class = Died>, fillcolor="#e58139ff"] ;
292 -> 293 ;
294 [label=<Parch &le; 1.5<br/>gini = 0.312<br/>samples = 31<br/>value = [6, 25]<br/>class = Survived>, fillcolor="#399de5c2"] ;
292 -> 294 ;
295 [label=<Age &le; 0.5<br/>gini = 0.278<br/>samples = 30<br/>value = [5, 25]<br/>class = Survived>, fillcolor="#399de5cc"] ;
294 -> 295 ;
296 [label=<gini = 0.0<br/>samples = 7<br/>value = [0, 7]<br/>class = Survived>, fillcolor="#399de5ff"] ;
295 -> 296 ;
297 [label=<Fare &le; 8.008<br/>gini = 0.34<br/>samples = 23<br/>value = [5, 18]<br/>class = Survived>, fillcolor="#399de5b8"] ;
295 -> 297 ;
298 [label=<Fare &le; 7.769<br/>gini = 0.298<br/>samples = 22<br/>value = [4, 18]<br/>class = Survived>, fillcolor="#399de5c6"] ;
297 -> 298 ;
299 [label=<Title_code &le; 3.0<br/>gini = 0.375<br/>samples = 16<br/>value = [4, 12]<br/>class = Survived>, fillcolor="#399de5aa"] ;
298 -> 299 ;
300 [label=<Fare &le; 7.681<br/>gini = 0.408<br/>samples = 14<br/>value = [4, 10]<br/>class = Survived>, fillcolor="#399de599"] ;
299 -> 300 ;
301 [label=<gini = 0.0<br/>samples = 1<br/>value = [1, 0]<br/>class = Died>, fillcolor="#e58139ff"] ;
300 -> 301 ;
302 [label=<Age &le; 1.5<br/>gini = 0.355<br/>samples = 13<br/>value = [3, 10]<br/>class = Survived>, fillcolor="#399de5b3"] ;
300 -> 302 ;
303 [label=<Fare &le; 7.744<br/>gini = 0.42<br/>samples = 10<br/>value = [3, 7]<br/>class = Survived>, fillcolor="#399de592"] ;
302 -> 303 ;
304 [label=<gini = 0.0<br/>samples = 2<br/>value = [0, 2]<br/>class = Survived>, fillcolor="#399de5ff"] ;
303 -> 304 ;
305 [label=<gini = 0.469<br/>samples = 8<br/>value = [3, 5]<br/>class = Survived>, fillcolor="#399de566"] ;
303 -> 305 ;
306 [label=<gini = 0.0<br/>samples = 3<br/>value = [0, 3]<br/>class = Survived>, fillcolor="#399de5ff"] ;
302 -> 306 ;
307 [label=<gini = 0.0<br/>samples = 2<br/>value = [0, 2]<br/>class = Survived>, fillcolor="#399de5ff"] ;
299 -> 307 ;
308 [label=<gini = 0.0<br/>samples = 6<br/>value = [0, 6]<br/>class = Survived>, fillcolor="#399de5ff"] ;
298 -> 308 ;
309 [label=<gini = 0.0<br/>samples = 1<br/>value = [1, 0]<br/>class = Died>, fillcolor="#e58139ff"] ;
297 -> 309 ;
310 [label=<gini = 0.0<br/>samples = 1<br/>value = [1, 0]<br/>class = Died>, fillcolor="#e58139ff"] ;
294 -> 310 ;
311 [label=<Fare &le; 15.373<br/>gini = 0.459<br/>samples = 14<br/>value = [9, 5]<br/>class = Died>, fillcolor="#e5813971"] ;
291 -> 311 ;
312 [label=<Title_code &le; 3.0<br/>gini = 0.32<br/>samples = 10<br/>value = [8, 2]<br/>class = Died>, fillcolor="#e58139bf"] ;
311 -> 312 ;
313 [label=<gini = 0.0<br/>samples = 5<br/>value = [5, 0]<br/>class = Died>, fillcolor="#e58139ff"] ;
312 -> 313 ;
314 [label=<Age &le; 1.5<br/>gini = 0.48<br/>samples = 5<br/>value = [3, 2]<br/>class = Died>, fillcolor="#e5813955"] ;
312 -> 314 ;
315 [label=<Age &le; 0.5<br/>gini = 0.444<br/>samples = 3<br/>value = [1, 2]<br/>class = Survived>, fillcolor="#399de57f"] ;
314 -> 315 ;
316 [label=<gini = 0.0<br/>samples = 1<br/>value = [0, 1]<br/>class = Survived>, fillcolor="#399de5ff"] ;
315 -> 316 ;
317 [label=<SibSp &le; 0.5<br/>gini = 0.5<br/>samples = 2<br/>value = [1, 1]<br/>class = Died>, fillcolor="#e5813900"] ;
315 -> 317 ;
318 [label=<gini = 0.0<br/>samples = 1<br/>value = [0, 1]<br/>class = Survived>, fillcolor="#399de5ff"] ;
317 -> 318 ;
319 [label=<gini = 0.0<br/>samples = 1<br/>value = [1, 0]<br/>class = Died>, fillcolor="#e58139ff"] ;
317 -> 319 ;
320 [label=<gini = 0.0<br/>samples = 2<br/>value = [2, 0]<br/>class = Died>, fillcolor="#e58139ff"] ;
314 -> 320 ;
321 [label=<Parch &le; 0.5<br/>gini = 0.375<br/>samples = 4<br/>value = [1, 3]<br/>class = Survived>, fillcolor="#399de5aa"] ;
311 -> 321 ;
322 [label=<gini = 0.0<br/>samples = 3<br/>value = [0, 3]<br/>class = Survived>, fillcolor="#399de5ff"] ;
321 -> 322 ;
323 [label=<gini = 0.0<br/>samples = 1<br/>value = [1, 0]<br/>class = Died>, fillcolor="#e58139ff"] ;
321 -> 323 ;
324 [label=<gini = 0.0<br/>samples = 8<br/>value = [0, 8]<br/>class = Survived>, fillcolor="#399de5ff"] ;
290 -> 324 ;
325 [label=<Fare &le; 10.825<br/>gini = 0.5<br/>samples = 63<br/>value = [32, 31]<br/>class = Died>, fillcolor="#e5813908"] ;
289 -> 325 ;
326 [label=<Fare &le; 7.988<br/>gini = 0.482<br/>samples = 37<br/>value = [22, 15]<br/>class = Died>, fillcolor="#e5813951"] ;
325 -> 326 ;
327 [label=<Age &le; 0.5<br/>gini = 0.495<br/>samples = 20<br/>value = [9, 11]<br/>class = Survived>, fillcolor="#399de52e"] ;
326 -> 327 ;
328 [label=<gini = 0.0<br/>samples = 2<br/>value = [2, 0]<br/>class = Died>, fillcolor="#e58139ff"] ;
327 -> 328 ;
329 [label=<Fare &le; 7.7<br/>gini = 0.475<br/>samples = 18<br/>value = [7, 11]<br/>class = Survived>, fillcolor="#399de55d"] ;
327 -> 329 ;
330 [label=<gini = 0.0<br/>samples = 4<br/>value = [0, 4]<br/>class = Survived>, fillcolor="#399de5ff"] ;
329 -> 330 ;
331 [label=<Age &le; 1.5<br/>gini = 0.5<br/>samples = 14<br/>value = [7, 7]<br/>class = Died>, fillcolor="#e5813900"] ;
329 -> 331 ;
332 [label=<Fare &le; 7.762<br/>gini = 0.497<br/>samples = 13<br/>value = [6, 7]<br/>class = Survived>, fillcolor="#399de524"] ;
331 -> 332 ;
333 [label=<gini = 0.0<br/>samples = 1<br/>value = [0, 1]<br/>class = Survived>, fillcolor="#399de5ff"] ;
332 -> 333 ;
334 [label=<SibSp &le; 2.5<br/>gini = 0.5<br/>samples = 12<br/>value = [6, 6]<br/>class = Died>, fillcolor="#e5813900"] ;
332 -> 334 ;
335 [label=<Fare &le; 7.815<br/>gini = 0.496<br/>samples = 11<br/>value = [6, 5]<br/>class = Died>, fillcolor="#e581392a"] ;
334 -> 335 ;
336 [label=<gini = 0.444<br/>samples = 3<br/>value = [2, 1]<br/>class = Died>, fillcolor="#e581397f"] ;
335 -> 336 ;
337 [label=<Fare &le; 7.875<br/>gini = 0.5<br/>samples = 8<br/>value = [4, 4]<br/>class = Died>, fillcolor="#e5813900"] ;
335 -> 337 ;
338 [label=<SibSp &le; 0.5<br/>gini = 0.444<br/>samples = 3<br/>value = [1, 2]<br/>class = Survived>, fillcolor="#399de57f"] ;
337 -> 338 ;
339 [label=<gini = 0.5<br/>samples = 2<br/>value = [1, 1]<br/>class = Died>, fillcolor="#e5813900"] ;
338 -> 339 ;
340 [label=<gini = 0.0<br/>samples = 1<br/>value = [0, 1]<br/>class = Survived>, fillcolor="#399de5ff"] ;
338 -> 340 ;
341 [label=<Fare &le; 7.91<br/>gini = 0.48<br/>samples = 5<br/>value = [3, 2]<br/>class = Died>, fillcolor="#e5813955"] ;
337 -> 341 ;
342 [label=<gini = 0.0<br/>samples = 1<br/>value = [1, 0]<br/>class = Died>, fillcolor="#e58139ff"] ;
341 -> 342 ;
343 [label=<SibSp &le; 0.5<br/>gini = 0.5<br/>samples = 4<br/>value = [2, 2]<br/>class = Died>, fillcolor="#e5813900"] ;
341 -> 343 ;
344 [label=<gini = 0.444<br/>samples = 3<br/>value = [1, 2]<br/>class = Survived>, fillcolor="#399de57f"] ;
343 -> 344 ;
345 [label=<gini = 0.0<br/>samples = 1<br/>value = [1, 0]<br/>class = Died>, fillcolor="#e58139ff"] ;
343 -> 345 ;
346 [label=<gini = 0.0<br/>samples = 1<br/>value = [0, 1]<br/>class = Survived>, fillcolor="#399de5ff"] ;
334 -> 346 ;
347 [label=<gini = 0.0<br/>samples = 1<br/>value = [1, 0]<br/>class = Died>, fillcolor="#e58139ff"] ;
331 -> 347 ;
348 [label=<Title_code &le; 3.0<br/>gini = 0.36<br/>samples = 17<br/>value = [13, 4]<br/>class = Died>, fillcolor="#e58139b1"] ;
326 -> 348 ;
349 [label=<Fare &le; 9.84<br/>gini = 0.165<br/>samples = 11<br/>value = [10, 1]<br/>class = Died>, fillcolor="#e58139e6"] ;
348 -> 349 ;
350 [label=<gini = 0.0<br/>samples = 8<br/>value = [8, 0]<br/>class = Died>, fillcolor="#e58139ff"] ;
349 -> 350 ;
351 [label=<Fare &le; 10.152<br/>gini = 0.444<br/>samples = 3<br/>value = [2, 1]<br/>class = Died>, fillcolor="#e581397f"] ;
349 -> 351 ;
352 [label=<gini = 0.0<br/>samples = 1<br/>value = [0, 1]<br/>class = Survived>, fillcolor="#399de5ff"] ;
351 -> 352 ;
353 [label=<gini = 0.0<br/>samples = 2<br/>value = [2, 0]<br/>class = Died>, fillcolor="#e58139ff"] ;
351 -> 353 ;
354 [label=<SibSp &le; 0.5<br/>gini = 0.5<br/>samples = 6<br/>value = [3, 3]<br/>class = Died>, fillcolor="#e5813900"] ;
348 -> 354 ;
355 [label=<Fare &le; 8.367<br/>gini = 0.375<br/>samples = 4<br/>value = [1, 3]<br/>class = Survived>, fillcolor="#399de5aa"] ;
354 -> 355 ;
356 [label=<gini = 0.0<br/>samples = 1<br/>value = [1, 0]<br/>class = Died>, fillcolor="#e58139ff"] ;
355 -> 356 ;
357 [label=<gini = 0.0<br/>samples = 3<br/>value = [0, 3]<br/>class = Survived>, fillcolor="#399de5ff"] ;
355 -> 357 ;
358 [label=<gini = 0.0<br/>samples = 2<br/>value = [2, 0]<br/>class = Died>, fillcolor="#e58139ff"] ;
354 -> 358 ;
359 [label=<Fare &le; 17.6<br/>gini = 0.473<br/>samples = 26<br/>value = [10, 16]<br/>class = Survived>, fillcolor="#399de560"] ;
325 -> 359 ;
360 [label=<Fare &le; 13.438<br/>gini = 0.305<br/>samples = 16<br/>value = [3, 13]<br/>class = Survived>, fillcolor="#399de5c4"] ;
359 -> 360 ;
361 [label=<gini = 0.0<br/>samples = 6<br/>value = [0, 6]<br/>class = Survived>, fillcolor="#399de5ff"] ;
360 -> 361 ;
362 [label=<Fare &le; 15.175<br/>gini = 0.42<br/>samples = 10<br/>value = [3, 7]<br/>class = Survived>, fillcolor="#399de592"] ;
360 -> 362 ;
363 [label=<gini = 0.0<br/>samples = 2<br/>value = [2, 0]<br/>class = Died>, fillcolor="#e58139ff"] ;
362 -> 363 ;
364 [label=<Age &le; 1.5<br/>gini = 0.219<br/>samples = 8<br/>value = [1, 7]<br/>class = Survived>, fillcolor="#399de5db"] ;
362 -> 364 ;
365 [label=<Parch &le; 0.5<br/>gini = 0.375<br/>samples = 4<br/>value = [1, 3]<br/>class = Survived>, fillcolor="#399de5aa"] ;
364 -> 365 ;
366 [label=<Fare &le; 15.975<br/>gini = 0.5<br/>samples = 2<br/>value = [1, 1]<br/>class = Died>, fillcolor="#e5813900"] ;
365 -> 366 ;
367 [label=<gini = 0.0<br/>samples = 1<br/>value = [0, 1]<br/>class = Survived>, fillcolor="#399de5ff"] ;
366 -> 367 ;
368 [label=<gini = 0.0<br/>samples = 1<br/>value = [1, 0]<br/>class = Died>, fillcolor="#e58139ff"] ;
366 -> 368 ;
369 [label=<gini = 0.0<br/>samples = 2<br/>value = [0, 2]<br/>class = Survived>, fillcolor="#399de5ff"] ;
365 -> 369 ;
370 [label=<gini = 0.0<br/>samples = 4<br/>value = [0, 4]<br/>class = Survived>, fillcolor="#399de5ff"] ;
364 -> 370 ;
371 [label=<Fare &le; 20.231<br/>gini = 0.42<br/>samples = 10<br/>value = [7, 3]<br/>class = Died>, fillcolor="#e5813992"] ;
359 -> 371 ;
372 [label=<gini = 0.0<br/>samples = 4<br/>value = [4, 0]<br/>class = Died>, fillcolor="#e58139ff"] ;
371 -> 372 ;
373 [label=<Family_size &le; 1.5<br/>gini = 0.5<br/>samples = 6<br/>value = [3, 3]<br/>class = Died>, fillcolor="#e5813900"] ;
371 -> 373 ;
374 [label=<gini = 0.0<br/>samples = 3<br/>value = [0, 3]<br/>class = Survived>, fillcolor="#399de5ff"] ;
373 -> 374 ;
375 [label=<gini = 0.0<br/>samples = 3<br/>value = [3, 0]<br/>class = Died>, fillcolor="#e58139ff"] ;
373 -> 375 ;
376 [label=<Parch &le; 0.5<br/>gini = 0.198<br/>samples = 27<br/>value = [24, 3]<br/>class = Died>, fillcolor="#e58139df"] ;
288 -> 376 ;
377 [label=<gini = 0.0<br/>samples = 1<br/>value = [0, 1]<br/>class = Survived>, fillcolor="#399de5ff"] ;
376 -> 377 ;
378 [label=<Fare &le; 31.331<br/>gini = 0.142<br/>samples = 26<br/>value = [24, 2]<br/>class = Died>, fillcolor="#e58139ea"] ;
376 -> 378 ;
379 [label=<gini = 0.0<br/>samples = 15<br/>value = [15, 0]<br/>class = Died>, fillcolor="#e58139ff"] ;
378 -> 379 ;
380 [label=<Fare &le; 32.881<br/>gini = 0.298<br/>samples = 11<br/>value = [9, 2]<br/>class = Died>, fillcolor="#e58139c6"] ;
378 -> 380 ;
381 [label=<gini = 0.0<br/>samples = 2<br/>value = [0, 2]<br/>class = Survived>, fillcolor="#399de5ff"] ;
380 -> 381 ;
382 [label=<gini = 0.0<br/>samples = 9<br/>value = [9, 0]<br/>class = Died>, fillcolor="#e58139ff"] ;
380 -> 382 ;
}
